digraph Tree {
node [shape=box] ;
0 [label="neg_market_value <= 16206318592.0\nmse = 155.878\nsamples = 213\nvalue = 113.263"] ;
1 [label="innerValue <= 69.205\nmse = 117.254\nsamples = 168\nvalue = 110.948"] ;
0 -> 1 [labeldistance=2.5, labelangle=45, headlabel="True"] ;
2 [label="mse = 70.56\nsamples = 5\nvalue = 130.801"] ;
1 -> 2 ;
3 [label="rate <= 3.5\nmse = 104.804\nsamples = 163\nvalue = 110.264"] ;
1 -> 3 ;
4 [label="innerValue <= 89.756\nmse = 102.094\nsamples = 145\nvalue = 111.212"] ;
3 -> 4 ;
5 [label="rate <= 2.5\nmse = 92.343\nsamples = 63\nvalue = 113.676"] ;
4 -> 5 ;
6 [label="mse = 105.402\nsamples = 34\nvalue = 115.672"] ;
5 -> 6 ;
7 [label="mse = 70.248\nsamples = 29\nvalue = 111.596"] ;
5 -> 7 ;
8 [label="innerValue <= 102.544\nmse = 101.642\nsamples = 82\nvalue = 109.46"] ;
4 -> 8 ;
9 [label="mse = 93.943\nsamples = 73\nvalue = 108.407"] ;
8 -> 9 ;
10 [label="mse = 75.705\nsamples = 9\nvalue = 118.565"] ;
8 -> 10 ;
11 [label="remainSize <= 16.468\nmse = 65.379\nsamples = 18\nvalue = 102.959"] ;
3 -> 11 ;
12 [label="mse = 88.974\nsamples = 5\nvalue = 112.437"] ;
11 -> 12 ;
13 [label="industry <= 6.5\nmse = 31.405\nsamples = 13\nvalue = 100.589"] ;
11 -> 13 ;
14 [label="mse = 30.258\nsamples = 5\nvalue = 98.133"] ;
13 -> 14 ;
15 [label="mse = 24.835\nsamples = 8\nvalue = 102.344"] ;
13 -> 15 ;
16 [label="put_trigger_rate <= 29.5\nmse = 204.493\nsamples = 45\nvalue = 122.19"] ;
0 -> 16 [labeldistance=2.5, labelangle=-45, headlabel="False"] ;
17 [label="mse = 31.363\nsamples = 6\nvalue = 108.5"] ;
16 -> 17 ;
18 [label="neg_market_value <= 93092818944.0\nmse = 198.303\nsamples = 39\nvalue = 124.21"] ;
16 -> 18 ;
19 [label="remainSize <= 20.54\nmse = 115.115\nsamples = 34\nvalue = 121.452"] ;
18 -> 19 ;
20 [label="innerValue <= 79.278\nmse = 119.567\nsamples = 20\nvalue = 125.287"] ;
19 -> 20 ;
21 [label="mse = 7.858\nsamples = 5\nvalue = 117.342"] ;
20 -> 21 ;
22 [label="mse = 127.147\nsamples = 15\nvalue = 127.014"] ;
20 -> 22 ;
23 [label="innerValue <= 88.072\nmse = 72.74\nsamples = 14\nvalue = 116.977"] ;
19 -> 23 ;
24 [label="mse = 21.315\nsamples = 8\nvalue = 119.744"] ;
23 -> 24 ;
25 [label="mse = 124.424\nsamples = 6\nvalue = 112.366"] ;
23 -> 25 ;
26 [label="mse = 380.898\nsamples = 5\nvalue = 140.15"] ;
18 -> 26 ;
}